
\data\
ngram 1=12

\1-grams:
-0.6095204	</s>
-99	<s>
-1.095328	eight
-1.108692	five
-1.12248	four
-1.108692	nine
-1.069774	one
-1.12248	seven
-1.271419	six
-1.12248	ten
-1.082363	three
-1.151444	two

\end\
